digraph Tree {
node [shape=box] ;
0 [label="X[36] <= 0.5\ngini = 0.9\nsamples = 1257\nvalue = [125, 129, 124, 130, 124, 126, 127, 125, 122, 125]"] ;
1 [label="X[28] <= 5.0\ngini = 0.515\nsamples = 184\nvalue = [123, 0, 2, 1, 3, 20, 4, 0, 2, 29]"] ;
0 -> 1 [labeldistance=2.5, labelangle=45, headlabel="True"] ;
2 [label="X[43] <= 14.0\ngini = 0.156\nsamples = 134\nvalue = [123, 0, 1, 0, 3, 3, 3, 0, 0, 1]"] ;
1 -> 2 ;
3 [label="X[27] <= 11.0\ngini = 0.047\nsamples = 126\nvalue = [123, 0, 1, 0, 1, 0, 0, 0, 0, 1]"] ;
2 -> 3 ;
4 [label="gini = 0.0\nsamples = 123\nvalue = [123, 0, 0, 0, 0, 0, 0, 0, 0, 0]"] ;
3 -> 4 ;
5 [label="X[48] <= 4.0\ngini = 0.667\nsamples = 3\nvalue = [0, 0, 1, 0, 1, 0, 0, 0, 0, 1]"] ;
3 -> 5 ;
6 [label="X[37] <= 6.0\ngini = 0.5\nsamples = 2\nvalue = [0, 0, 1, 0, 0, 0, 0, 0, 0, 1]"] ;
5 -> 6 ;
7 [label="gini = 0.0\nsamples = 1\nvalue = [0, 0, 1, 0, 0, 0, 0, 0, 0, 0]"] ;
6 -> 7 ;
8 [label="gini = 0.0\nsamples = 1\nvalue = [0, 0, 0, 0, 0, 0, 0, 0, 0, 1]"] ;
6 -> 8 ;
9 [label="gini = 0.0\nsamples = 1\nvalue = [0, 0, 0, 0, 1, 0, 0, 0, 0, 0]"] ;
5 -> 9 ;
10 [label="X[17] <= 5.0\ngini = 0.656\nsamples = 8\nvalue = [0, 0, 0, 0, 2, 3, 3, 0, 0, 0]"] ;
2 -> 10 ;
11 [label="X[33] <= 3.5\ngini = 0.48\nsamples = 5\nvalue = [0, 0, 0, 0, 2, 0, 3, 0, 0, 0]"] ;
10 -> 11 ;
12 [label="gini = 0.0\nsamples = 3\nvalue = [0, 0, 0, 0, 0, 0, 3, 0, 0, 0]"] ;
11 -> 12 ;
13 [label="gini = 0.0\nsamples = 2\nvalue = [0, 0, 0, 0, 2, 0, 0, 0, 0, 0]"] ;
11 -> 13 ;
14 [label="gini = 0.0\nsamples = 3\nvalue = [0, 0, 0, 0, 0, 3, 0, 0, 0, 0]"] ;
10 -> 14 ;
15 [label="X[21] <= 9.0\ngini = 0.568\nsamples = 50\nvalue = [0, 0, 1, 1, 0, 17, 1, 0, 2, 28]"] ;
1 -> 15 ;
16 [label="X[4] <= 11.0\ngini = 0.345\nsamples = 20\nvalue = [0, 0, 1, 0, 0, 16, 1, 0, 0, 2]"] ;
15 -> 16 ;
17 [label="X[62] <= 4.0\ngini = 0.444\nsamples = 3\nvalue = [0, 0, 0, 0, 0, 0, 1, 0, 0, 2]"] ;
16 -> 17 ;
18 [label="gini = 0.0\nsamples = 1\nvalue = [0, 0, 0, 0, 0, 0, 1, 0, 0, 0]"] ;
17 -> 18 ;
19 [label="gini = 0.0\nsamples = 2\nvalue = [0, 0, 0, 0, 0, 0, 0, 0, 0, 2]"] ;
17 -> 19 ;
20 [label="X[50] <= 15.0\ngini = 0.111\nsamples = 17\nvalue = [0, 0, 1, 0, 0, 16, 0, 0, 0, 0]"] ;
16 -> 20 ;
21 [label="gini = 0.0\nsamples = 16\nvalue = [0, 0, 0, 0, 0, 16, 0, 0, 0, 0]"] ;
20 -> 21 ;
22 [label="gini = 0.0\nsamples = 1\nvalue = [0, 0, 1, 0, 0, 0, 0, 0, 0, 0]"] ;
20 -> 22 ;
23 [label="X[34] <= 8.0\ngini = 0.242\nsamples = 30\nvalue = [0, 0, 0, 1, 0, 1, 0, 0, 2, 26]"] ;
15 -> 23 ;
24 [label="X[9] <= 10.5\ngini = 0.071\nsamples = 27\nvalue = [0, 0, 0, 1, 0, 0, 0, 0, 0, 26]"] ;
23 -> 24 ;
25 [label="gini = 0.0\nsamples = 26\nvalue = [0, 0, 0, 0, 0, 0, 0, 0, 0, 26]"] ;
24 -> 25 ;
26 [label="gini = 0.0\nsamples = 1\nvalue = [0, 0, 0, 1, 0, 0, 0, 0, 0, 0]"] ;
24 -> 26 ;
27 [label="X[20] <= 8.0\ngini = 0.444\nsamples = 3\nvalue = [0, 0, 0, 0, 0, 1, 0, 0, 2, 0]"] ;
23 -> 27 ;
28 [label="gini = 0.0\nsamples = 1\nvalue = [0, 0, 0, 0, 0, 1, 0, 0, 0, 0]"] ;
27 -> 28 ;
29 [label="gini = 0.0\nsamples = 2\nvalue = [0, 0, 0, 0, 0, 0, 0, 0, 2, 0]"] ;
27 -> 29 ;
30 [label="X[43] <= 1.5\ngini = 0.888\nsamples = 1073\nvalue = [2, 129, 122, 129, 121, 106, 123, 125, 120, 96]"] ;
0 -> 30 [labeldistance=2.5, labelangle=-45, headlabel="False"] ;
31 [label="X[26] <= 4.5\ngini = 0.737\nsamples = 305\nvalue = [0, 18, 0, 119, 10, 56, 3, 5, 13, 81]"] ;
30 -> 31 ;
32 [label="X[19] <= 10.5\ngini = 0.27\nsamples = 127\nvalue = [0, 5, 0, 108, 0, 0, 0, 1, 6, 7]"] ;
31 -> 32 ;
33 [label="X[59] <= 6.5\ngini = 0.088\nsamples = 110\nvalue = [0, 0, 0, 105, 0, 0, 0, 1, 2, 2]"] ;
32 -> 33 ;
34 [label="X[50] <= 6.0\ngini = 0.5\nsamples = 2\nvalue = [0, 0, 0, 0, 0, 0, 0, 1, 1, 0]"] ;
33 -> 34 ;
35 [label="gini = 0.0\nsamples = 1\nvalue = [0, 0, 0, 0, 0, 0, 0, 1, 0, 0]"] ;
34 -> 35 ;
36 [label="gini = 0.0\nsamples = 1\nvalue = [0, 0, 0, 0, 0, 0, 0, 0, 1, 0]"] ;
34 -> 36 ;
37 [label="X[30] <= 5.0\ngini = 0.054\nsamples = 108\nvalue = [0, 0, 0, 105, 0, 0, 0, 0, 1, 2]"] ;
33 -> 37 ;
38 [label="X[37] <= 1.5\ngini = 0.037\nsamples = 107\nvalue = [0, 0, 0, 105, 0, 0, 0, 0, 1, 1]"] ;
37 -> 38 ;
39 [label="X[11] <= 6.5\ngini = 0.5\nsamples = 2\nvalue = [0, 0, 0, 1, 0, 0, 0, 0, 1, 0]"] ;
38 -> 39 ;
40 [label="gini = 0.0\nsamples = 1\nvalue = [0, 0, 0, 1, 0, 0, 0, 0, 0, 0]"] ;
39 -> 40 ;
41 [label="gini = 0.0\nsamples = 1\nvalue = [0, 0, 0, 0, 0, 0, 0, 0, 1, 0]"] ;
39 -> 41 ;
42 [label="X[4] <= 8.0\ngini = 0.019\nsamples = 105\nvalue = [0, 0, 0, 104, 0, 0, 0, 0, 0, 1]"] ;
38 -> 42 ;
43 [label="X[11] <= 8.5\ngini = 0.375\nsamples = 4\nvalue = [0, 0, 0, 3, 0, 0, 0, 0, 0, 1]"] ;
42 -> 43 ;
44 [label="gini = 0.0\nsamples = 1\nvalue = [0, 0, 0, 0, 0, 0, 0, 0, 0, 1]"] ;
43 -> 44 ;
45 [label="gini = 0.0\nsamples = 3\nvalue = [0, 0, 0, 3, 0, 0, 0, 0, 0, 0]"] ;
43 -> 45 ;
46 [label="gini = 0.0\nsamples = 101\nvalue = [0, 0, 0, 101, 0, 0, 0, 0, 0, 0]"] ;
42 -> 46 ;
47 [label="gini = 0.0\nsamples = 1\nvalue = [0, 0, 0, 0, 0, 0, 0, 0, 0, 1]"] ;
37 -> 47 ;
48 [label="X[29] <= 14.0\ngini = 0.74\nsamples = 17\nvalue = [0, 5, 0, 3, 0, 0, 0, 0, 4, 5]"] ;
32 -> 48 ;
49 [label="X[19] <= 13.5\ngini = 0.653\nsamples = 12\nvalue = [0, 5, 0, 3, 0, 0, 0, 0, 4, 0]"] ;
48 -> 49 ;
50 [label="X[37] <= 8.5\ngini = 0.49\nsamples = 7\nvalue = [0, 0, 0, 3, 0, 0, 0, 0, 4, 0]"] ;
49 -> 50 ;
51 [label="gini = 0.0\nsamples = 4\nvalue = [0, 0, 0, 0, 0, 0, 0, 0, 4, 0]"] ;
50 -> 51 ;
52 [label="gini = 0.0\nsamples = 3\nvalue = [0, 0, 0, 3, 0, 0, 0, 0, 0, 0]"] ;
50 -> 52 ;
53 [label="gini = 0.0\nsamples = 5\nvalue = [0, 5, 0, 0, 0, 0, 0, 0, 0, 0]"] ;
49 -> 53 ;
54 [label="gini = 0.0\nsamples = 5\nvalue = [0, 0, 0, 0, 0, 0, 0, 0, 0, 5]"] ;
48 -> 54 ;
55 [label="X[21] <= 3.5\ngini = 0.714\nsamples = 178\nvalue = [0, 13, 0, 11, 10, 56, 3, 4, 7, 74]"] ;
31 -> 55 ;
56 [label="X[5] <= 1.5\ngini = 0.422\nsamples = 69\nvalue = [0, 3, 0, 4, 3, 52, 3, 2, 1, 1]"] ;
55 -> 56 ;
57 [label="X[4] <= 11.0\ngini = 0.72\nsamples = 10\nvalue = [0, 3, 0, 4, 1, 0, 1, 0, 0, 1]"] ;
56 -> 57 ;
58 [label="X[29] <= 3.5\ngini = 0.667\nsamples = 6\nvalue = [0, 3, 0, 0, 1, 0, 1, 0, 0, 1]"] ;
57 -> 58 ;
59 [label="gini = 0.0\nsamples = 3\nvalue = [0, 3, 0, 0, 0, 0, 0, 0, 0, 0]"] ;
58 -> 59 ;
60 [label="X[19] <= 10.0\ngini = 0.667\nsamples = 3\nvalue = [0, 0, 0, 0, 1, 0, 1, 0, 0, 1]"] ;
58 -> 60 ;
61 [label="gini = 0.0\nsamples = 1\nvalue = [0, 0, 0, 0, 0, 0, 0, 0, 0, 1]"] ;
60 -> 61 ;
62 [label="X[12] <= 4.0\ngini = 0.5\nsamples = 2\nvalue = [0, 0, 0, 0, 1, 0, 1, 0, 0, 0]"] ;
60 -> 62 ;
63 [label="gini = 0.0\nsamples = 1\nvalue = [0, 0, 0, 0, 0, 0, 1, 0, 0, 0]"] ;
62 -> 63 ;
64 [label="gini = 0.0\nsamples = 1\nvalue = [0, 0, 0, 0, 1, 0, 0, 0, 0, 0]"] ;
62 -> 64 ;
65 [label="gini = 0.0\nsamples = 4\nvalue = [0, 0, 0, 4, 0, 0, 0, 0, 0, 0]"] ;
57 -> 65 ;
66 [label="X[10] <= 8.5\ngini = 0.219\nsamples = 59\nvalue = [0, 0, 0, 0, 2, 52, 2, 2, 1, 0]"] ;
56 -> 66 ;
67 [label="X[51] <= 3.5\ngini = 0.64\nsamples = 5\nvalue = [0, 0, 0, 0, 2, 0, 1, 2, 0, 0]"] ;
66 -> 67 ;
68 [label="gini = 0.0\nsamples = 2\nvalue = [0, 0, 0, 0, 2, 0, 0, 0, 0, 0]"] ;
67 -> 68 ;
69 [label="X[44] <= 6.5\ngini = 0.444\nsamples = 3\nvalue = [0, 0, 0, 0, 0, 0, 1, 2, 0, 0]"] ;
67 -> 69 ;
70 [label="gini = 0.0\nsamples = 1\nvalue = [0, 0, 0, 0, 0, 0, 1, 0, 0, 0]"] ;
69 -> 70 ;
71 [label="gini = 0.0\nsamples = 2\nvalue = [0, 0, 0, 0, 0, 0, 0, 2, 0, 0]"] ;
69 -> 71 ;
72 [label="X[42] <= 9.5\ngini = 0.072\nsamples = 54\nvalue = [0, 0, 0, 0, 0, 52, 1, 0, 1, 0]"] ;
66 -> 72 ;
73 [label="gini = 0.0\nsamples = 52\nvalue = [0, 0, 0, 0, 0, 52, 0, 0, 0, 0]"] ;
72 -> 73 ;
74 [label="X[54] <= 5.0\ngini = 0.5\nsamples = 2\nvalue = [0, 0, 0, 0, 0, 0, 1, 0, 1, 0]"] ;
72 -> 74 ;
75 [label="gini = 0.0\nsamples = 1\nvalue = [0, 0, 0, 0, 0, 0, 1, 0, 0, 0]"] ;
74 -> 75 ;
76 [label="gini = 0.0\nsamples = 1\nvalue = [0, 0, 0, 0, 0, 0, 0, 0, 1, 0]"] ;
74 -> 76 ;
77 [label="X[33] <= 2.5\ngini = 0.53\nsamples = 109\nvalue = [0, 10, 0, 7, 7, 4, 0, 2, 6, 73]"] ;
55 -> 77 ;
78 [label="X[29] <= 6.0\ngini = 0.352\nsamples = 89\nvalue = [0, 3, 0, 7, 0, 3, 0, 0, 5, 71]"] ;
77 -> 78 ;
79 [label="X[60] <= 10.0\ngini = 0.494\nsamples = 9\nvalue = [0, 0, 0, 6, 0, 1, 0, 0, 2, 0]"] ;
78 -> 79 ;
80 [label="X[20] <= 4.0\ngini = 0.444\nsamples = 3\nvalue = [0, 0, 0, 0, 0, 1, 0, 0, 2, 0]"] ;
79 -> 80 ;
81 [label="gini = 0.0\nsamples = 1\nvalue = [0, 0, 0, 0, 0, 1, 0, 0, 0, 0]"] ;
80 -> 81 ;
82 [label="gini = 0.0\nsamples = 2\nvalue = [0, 0, 0, 0, 0, 0, 0, 0, 2, 0]"] ;
80 -> 82 ;
83 [label="gini = 0.0\nsamples = 6\nvalue = [0, 0, 0, 6, 0, 0, 0, 0, 0, 0]"] ;
79 -> 83 ;
84 [label="X[42] <= 9.0\ngini = 0.209\nsamples = 80\nvalue = [0, 3, 0, 1, 0, 2, 0, 0, 3, 71]"] ;
78 -> 84 ;
85 [label="X[20] <= 14.5\ngini = 0.125\nsamples = 76\nvalue = [0, 3, 0, 1, 0, 1, 0, 0, 0, 71]"] ;
84 -> 85 ;
86 [label="X[27] <= 2.5\ngini = 0.03\nsamples = 66\nvalue = [0, 0, 0, 1, 0, 0, 0, 0, 0, 65]"] ;
85 -> 86 ;
87 [label="X[21] <= 15.0\ngini = 0.444\nsamples = 3\nvalue = [0, 0, 0, 1, 0, 0, 0, 0, 0, 2]"] ;
86 -> 87 ;
88 [label="gini = 0.0\nsamples = 1\nvalue = [0, 0, 0, 1, 0, 0, 0, 0, 0, 0]"] ;
87 -> 88 ;
89 [label="gini = 0.0\nsamples = 2\nvalue = [0, 0, 0, 0, 0, 0, 0, 0, 0, 2]"] ;
87 -> 89 ;
90 [label="gini = 0.0\nsamples = 63\nvalue = [0, 0, 0, 0, 0, 0, 0, 0, 0, 63]"] ;
86 -> 90 ;
91 [label="X[5] <= 7.0\ngini = 0.54\nsamples = 10\nvalue = [0, 3, 0, 0, 0, 1, 0, 0, 0, 6]"] ;
85 -> 91 ;
92 [label="X[4] <= 3.5\ngini = 0.245\nsamples = 7\nvalue = [0, 0, 0, 0, 0, 1, 0, 0, 0, 6]"] ;
91 -> 92 ;
93 [label="gini = 0.0\nsamples = 1\nvalue = [0, 0, 0, 0, 0, 1, 0, 0, 0, 0]"] ;
92 -> 93 ;
94 [label="gini = 0.0\nsamples = 6\nvalue = [0, 0, 0, 0, 0, 0, 0, 0, 0, 6]"] ;
92 -> 94 ;
95 [label="gini = 0.0\nsamples = 3\nvalue = [0, 3, 0, 0, 0, 0, 0, 0, 0, 0]"] ;
91 -> 95 ;
96 [label="X[6] <= 5.5\ngini = 0.375\nsamples = 4\nvalue = [0, 0, 0, 0, 0, 1, 0, 0, 3, 0]"] ;
84 -> 96 ;
97 [label="gini = 0.0\nsamples = 3\nvalue = [0, 0, 0, 0, 0, 0, 0, 0, 3, 0]"] ;
96 -> 97 ;
98 [label="gini = 0.0\nsamples = 1\nvalue = [0, 0, 0, 0, 0, 1, 0, 0, 0, 0]"] ;
96 -> 98 ;
99 [label="X[11] <= 14.0\ngini = 0.73\nsamples = 20\nvalue = [0, 7, 0, 0, 7, 1, 0, 2, 1, 2]"] ;
77 -> 99 ;
100 [label="X[19] <= 8.5\ngini = 0.651\nsamples = 13\nvalue = [0, 7, 0, 0, 0, 1, 0, 2, 1, 2]"] ;
99 -> 100 ;
101 [label="X[4] <= 13.5\ngini = 0.64\nsamples = 5\nvalue = [0, 0, 0, 0, 0, 0, 0, 2, 1, 2]"] ;
100 -> 101 ;
102 [label="gini = 0.0\nsamples = 2\nvalue = [0, 0, 0, 0, 0, 0, 0, 0, 0, 2]"] ;
101 -> 102 ;
103 [label="X[21] <= 9.5\ngini = 0.444\nsamples = 3\nvalue = [0, 0, 0, 0, 0, 0, 0, 2, 1, 0]"] ;
101 -> 103 ;
104 [label="gini = 0.0\nsamples = 1\nvalue = [0, 0, 0, 0, 0, 0, 0, 0, 1, 0]"] ;
103 -> 104 ;
105 [label="gini = 0.0\nsamples = 2\nvalue = [0, 0, 0, 0, 0, 0, 0, 2, 0, 0]"] ;
103 -> 105 ;
106 [label="X[21] <= 9.5\ngini = 0.219\nsamples = 8\nvalue = [0, 7, 0, 0, 0, 1, 0, 0, 0, 0]"] ;
100 -> 106 ;
107 [label="gini = 0.0\nsamples = 1\nvalue = [0, 0, 0, 0, 0, 1, 0, 0, 0, 0]"] ;
106 -> 107 ;
108 [label="gini = 0.0\nsamples = 7\nvalue = [0, 7, 0, 0, 0, 0, 0, 0, 0, 0]"] ;
106 -> 108 ;
109 [label="gini = 0.0\nsamples = 7\nvalue = [0, 0, 0, 0, 7, 0, 0, 0, 0, 0]"] ;
99 -> 109 ;
110 [label="X[46] <= 5.5\ngini = 0.86\nsamples = 768\nvalue = [2, 111, 122, 10, 111, 50, 120, 120, 107, 15]"] ;
30 -> 110 ;
111 [label="X[38] <= 0.5\ngini = 0.839\nsamples = 623\nvalue = [2, 110, 116, 3, 103, 49, 15, 120, 95, 10]"] ;
110 -> 111 ;
112 [label="X[19] <= 14.5\ngini = 0.795\nsamples = 424\nvalue = [0, 107, 116, 2, 14, 46, 15, 22, 94, 8]"] ;
111 -> 112 ;
113 [label="X[62] <= 2.5\ngini = 0.774\nsamples = 316\nvalue = [0, 21, 112, 2, 12, 43, 13, 22, 83, 8]"] ;
112 -> 113 ;
114 [label="X[21] <= 0.5\ngini = 0.795\nsamples = 202\nvalue = [0, 17, 21, 2, 12, 43, 6, 22, 71, 8]"] ;
113 -> 114 ;
115 [label="X[42] <= 8.5\ngini = 0.385\nsamples = 53\nvalue = [0, 0, 2, 0, 4, 41, 5, 0, 1, 0]"] ;
114 -> 115 ;
116 [label="X[20] <= 5.0\ngini = 0.13\nsamples = 44\nvalue = [0, 0, 1, 0, 1, 41, 0, 0, 1, 0]"] ;
115 -> 116 ;
117 [label="gini = 0.0\nsamples = 41\nvalue = [0, 0, 0, 0, 0, 41, 0, 0, 0, 0]"] ;
116 -> 117 ;
118 [label="X[59] <= 11.5\ngini = 0.667\nsamples = 3\nvalue = [0, 0, 1, 0, 1, 0, 0, 0, 1, 0]"] ;
116 -> 118 ;
119 [label="X[52] <= 8.5\ngini = 0.5\nsamples = 2\nvalue = [0, 0, 0, 0, 1, 0, 0, 0, 1, 0]"] ;
118 -> 119 ;
120 [label="gini = 0.0\nsamples = 1\nvalue = [0, 0, 0, 0, 0, 0, 0, 0, 1, 0]"] ;
119 -> 120 ;
121 [label="gini = 0.0\nsamples = 1\nvalue = [0, 0, 0, 0, 1, 0, 0, 0, 0, 0]"] ;
119 -> 121 ;
122 [label="gini = 0.0\nsamples = 1\nvalue = [0, 0, 1, 0, 0, 0, 0, 0, 0, 0]"] ;
118 -> 122 ;
123 [label="X[53] <= 9.5\ngini = 0.568\nsamples = 9\nvalue = [0, 0, 1, 0, 3, 0, 5, 0, 0, 0]"] ;
115 -> 123 ;
124 [label="X[20] <= 8.5\ngini = 0.375\nsamples = 4\nvalue = [0, 0, 1, 0, 3, 0, 0, 0, 0, 0]"] ;
123 -> 124 ;
125 [label="gini = 0.0\nsamples = 3\nvalue = [0, 0, 0, 0, 3, 0, 0, 0, 0, 0]"] ;
124 -> 125 ;
126 [label="gini = 0.0\nsamples = 1\nvalue = [0, 0, 1, 0, 0, 0, 0, 0, 0, 0]"] ;
124 -> 126 ;
127 [label="gini = 0.0\nsamples = 5\nvalue = [0, 0, 0, 0, 0, 0, 5, 0, 0, 0]"] ;
123 -> 127 ;
128 [label="X[50] <= 8.5\ngini = 0.722\nsamples = 149\nvalue = [0, 17, 19, 2, 8, 2, 1, 22, 70, 8]"] ;
114 -> 128 ;
129 [label="X[20] <= 15.5\ngini = 0.824\nsamples = 72\nvalue = [0, 17, 6, 2, 7, 2, 0, 18, 12, 8]"] ;
128 -> 129 ;
130 [label="X[61] <= 5.5\ngini = 0.794\nsamples = 52\nvalue = [0, 0, 5, 2, 7, 2, 0, 17, 11, 8]"] ;
129 -> 130 ;
131 [label="X[13] <= 7.5\ngini = 0.713\nsamples = 38\nvalue = [0, 0, 0, 2, 7, 2, 0, 17, 2, 8]"] ;
130 -> 131 ;
132 [label="gini = 0.0\nsamples = 7\nvalue = [0, 0, 0, 0, 7, 0, 0, 0, 0, 0]"] ;
131 -> 132 ;
133 [label="X[27] <= 9.0\ngini = 0.62\nsamples = 31\nvalue = [0, 0, 0, 2, 0, 2, 0, 17, 2, 8]"] ;
131 -> 133 ;
134 [label="X[36] <= 6.5\ngini = 0.117\nsamples = 16\nvalue = [0, 0, 0, 0, 0, 0, 0, 15, 1, 0]"] ;
133 -> 134 ;
135 [label="gini = 0.0\nsamples = 1\nvalue = [0, 0, 0, 0, 0, 0, 0, 0, 1, 0]"] ;
134 -> 135 ;
136 [label="gini = 0.0\nsamples = 15\nvalue = [0, 0, 0, 0, 0, 0, 0, 15, 0, 0]"] ;
134 -> 136 ;
137 [label="X[21] <= 12.5\ngini = 0.658\nsamples = 15\nvalue = [0, 0, 0, 2, 0, 2, 0, 2, 1, 8]"] ;
133 -> 137 ;
138 [label="X[33] <= 1.0\ngini = 0.735\nsamples = 7\nvalue = [0, 0, 0, 2, 0, 2, 0, 2, 1, 0]"] ;
137 -> 138 ;
139 [label="X[45] <= 4.5\ngini = 0.64\nsamples = 5\nvalue = [0, 0, 0, 2, 0, 2, 0, 0, 1, 0]"] ;
138 -> 139 ;
140 [label="X[50] <= 7.5\ngini = 0.444\nsamples = 3\nvalue = [0, 0, 0, 2, 0, 0, 0, 0, 1, 0]"] ;
139 -> 140 ;
141 [label="gini = 0.0\nsamples = 2\nvalue = [0, 0, 0, 2, 0, 0, 0, 0, 0, 0]"] ;
140 -> 141 ;
142 [label="gini = 0.0\nsamples = 1\nvalue = [0, 0, 0, 0, 0, 0, 0, 0, 1, 0]"] ;
140 -> 142 ;
143 [label="gini = 0.0\nsamples = 2\nvalue = [0, 0, 0, 0, 0, 2, 0, 0, 0, 0]"] ;
139 -> 143 ;
144 [label="gini = 0.0\nsamples = 2\nvalue = [0, 0, 0, 0, 0, 0, 0, 2, 0, 0]"] ;
138 -> 144 ;
145 [label="gini = 0.0\nsamples = 8\nvalue = [0, 0, 0, 0, 0, 0, 0, 0, 0, 8]"] ;
137 -> 145 ;
146 [label="X[26] <= 7.0\ngini = 0.459\nsamples = 14\nvalue = [0, 0, 5, 0, 0, 0, 0, 0, 9, 0]"] ;
130 -> 146 ;
147 [label="gini = 0.0\nsamples = 5\nvalue = [0, 0, 5, 0, 0, 0, 0, 0, 0, 0]"] ;
146 -> 147 ;
148 [label="gini = 0.0\nsamples = 9\nvalue = [0, 0, 0, 0, 0, 0, 0, 0, 9, 0]"] ;
146 -> 148 ;
149 [label="X[44] <= 12.5\ngini = 0.27\nsamples = 20\nvalue = [0, 17, 1, 0, 0, 0, 0, 1, 1, 0]"] ;
129 -> 149 ;
150 [label="X[60] <= 5.0\ngini = 0.667\nsamples = 3\nvalue = [0, 0, 1, 0, 0, 0, 0, 1, 1, 0]"] ;
149 -> 150 ;
151 [label="gini = 0.0\nsamples = 1\nvalue = [0, 0, 0, 0, 0, 0, 0, 1, 0, 0]"] ;
150 -> 151 ;
152 [label="X[54] <= 7.0\ngini = 0.5\nsamples = 2\nvalue = [0, 0, 1, 0, 0, 0, 0, 0, 1, 0]"] ;
150 -> 152 ;
153 [label="gini = 0.0\nsamples = 1\nvalue = [0, 0, 1, 0, 0, 0, 0, 0, 0, 0]"] ;
152 -> 153 ;
154 [label="gini = 0.0\nsamples = 1\nvalue = [0, 0, 0, 0, 0, 0, 0, 0, 1, 0]"] ;
152 -> 154 ;
155 [label="gini = 0.0\nsamples = 17\nvalue = [0, 17, 0, 0, 0, 0, 0, 0, 0, 0]"] ;
149 -> 155 ;
156 [label="X[26] <= 0.5\ngini = 0.401\nsamples = 77\nvalue = [0, 0, 13, 0, 1, 0, 1, 4, 58, 0]"] ;
128 -> 156 ;
157 [label="X[3] <= 12.5\ngini = 0.337\nsamples = 14\nvalue = [0, 0, 11, 0, 0, 0, 0, 0, 3, 0]"] ;
156 -> 157 ;
158 [label="gini = 0.0\nsamples = 3\nvalue = [0, 0, 0, 0, 0, 0, 0, 0, 3, 0]"] ;
157 -> 158 ;
159 [label="gini = 0.0\nsamples = 11\nvalue = [0, 0, 11, 0, 0, 0, 0, 0, 0, 0]"] ;
157 -> 159 ;
160 [label="X[60] <= 1.5\ngini = 0.232\nsamples = 63\nvalue = [0, 0, 2, 0, 1, 0, 1, 4, 55, 0]"] ;
156 -> 160 ;
161 [label="gini = 0.0\nsamples = 4\nvalue = [0, 0, 0, 0, 0, 0, 0, 4, 0, 0]"] ;
160 -> 161 ;
162 [label="X[10] <= 6.0\ngini = 0.129\nsamples = 59\nvalue = [0, 0, 2, 0, 1, 0, 1, 0, 55, 0]"] ;
160 -> 162 ;
163 [label="X[40] <= 2.0\ngini = 0.667\nsamples = 3\nvalue = [0, 0, 1, 0, 1, 0, 1, 0, 0, 0]"] ;
162 -> 163 ;
164 [label="X[35] <= 11.0\ngini = 0.5\nsamples = 2\nvalue = [0, 0, 1, 0, 0, 0, 1, 0, 0, 0]"] ;
163 -> 164 ;
165 [label="gini = 0.0\nsamples = 1\nvalue = [0, 0, 1, 0, 0, 0, 0, 0, 0, 0]"] ;
164 -> 165 ;
166 [label="gini = 0.0\nsamples = 1\nvalue = [0, 0, 0, 0, 0, 0, 1, 0, 0, 0]"] ;
164 -> 166 ;
167 [label="gini = 0.0\nsamples = 1\nvalue = [0, 0, 0, 0, 1, 0, 0, 0, 0, 0]"] ;
163 -> 167 ;
168 [label="X[21] <= 3.5\ngini = 0.035\nsamples = 56\nvalue = [0, 0, 1, 0, 0, 0, 0, 0, 55, 0]"] ;
162 -> 168 ;
169 [label="gini = 0.0\nsamples = 1\nvalue = [0, 0, 1, 0, 0, 0, 0, 0, 0, 0]"] ;
168 -> 169 ;
170 [label="gini = 0.0\nsamples = 55\nvalue = [0, 0, 0, 0, 0, 0, 0, 0, 55, 0]"] ;
168 -> 170 ;
171 [label="X[45] <= 7.5\ngini = 0.347\nsamples = 114\nvalue = [0, 4, 91, 0, 0, 0, 7, 0, 12, 0]"] ;
113 -> 171 ;
172 [label="X[11] <= 1.0\ngini = 0.022\nsamples = 91\nvalue = [0, 1, 90, 0, 0, 0, 0, 0, 0, 0]"] ;
171 -> 172 ;
173 [label="gini = 0.0\nsamples = 1\nvalue = [0, 1, 0, 0, 0, 0, 0, 0, 0, 0]"] ;
172 -> 173 ;
174 [label="gini = 0.0\nsamples = 90\nvalue = [0, 0, 90, 0, 0, 0, 0, 0, 0, 0]"] ;
172 -> 174 ;
175 [label="X[21] <= 0.5\ngini = 0.616\nsamples = 23\nvalue = [0, 3, 1, 0, 0, 0, 7, 0, 12, 0]"] ;
171 -> 175 ;
176 [label="gini = 0.0\nsamples = 7\nvalue = [0, 0, 0, 0, 0, 0, 7, 0, 0, 0]"] ;
175 -> 176 ;
177 [label="X[20] <= 15.5\ngini = 0.398\nsamples = 16\nvalue = [0, 3, 1, 0, 0, 0, 0, 0, 12, 0]"] ;
175 -> 177 ;
178 [label="gini = 0.0\nsamples = 12\nvalue = [0, 0, 0, 0, 0, 0, 0, 0, 12, 0]"] ;
177 -> 178 ;
179 [label="X[35] <= 5.5\ngini = 0.375\nsamples = 4\nvalue = [0, 3, 1, 0, 0, 0, 0, 0, 0, 0]"] ;
177 -> 179 ;
180 [label="gini = 0.0\nsamples = 1\nvalue = [0, 0, 1, 0, 0, 0, 0, 0, 0, 0]"] ;
179 -> 180 ;
181 [label="gini = 0.0\nsamples = 3\nvalue = [0, 3, 0, 0, 0, 0, 0, 0, 0, 0]"] ;
179 -> 181 ;
182 [label="X[9] <= 3.0\ngini = 0.353\nsamples = 108\nvalue = [0, 86, 4, 0, 2, 3, 2, 0, 11, 0]"] ;
112 -> 182 ;
183 [label="X[26] <= 2.5\ngini = 0.262\nsamples = 101\nvalue = [0, 86, 0, 0, 2, 0, 2, 0, 11, 0]"] ;
182 -> 183 ;
184 [label="X[42] <= 9.5\ngini = 0.492\nsamples = 16\nvalue = [0, 7, 0, 0, 0, 0, 0, 0, 9, 0]"] ;
183 -> 184 ;
185 [label="gini = 0.0\nsamples = 7\nvalue = [0, 7, 0, 0, 0, 0, 0, 0, 0, 0]"] ;
184 -> 185 ;
186 [label="gini = 0.0\nsamples = 9\nvalue = [0, 0, 0, 0, 0, 0, 0, 0, 9, 0]"] ;
184 -> 186 ;
187 [label="X[28] <= 3.5\ngini = 0.135\nsamples = 85\nvalue = [0, 79, 0, 0, 2, 0, 2, 0, 2, 0]"] ;
183 -> 187 ;
188 [label="X[3] <= 5.5\ngini = 0.444\nsamples = 3\nvalue = [0, 0, 0, 0, 1, 0, 2, 0, 0, 0]"] ;
187 -> 188 ;
189 [label="gini = 0.0\nsamples = 1\nvalue = [0, 0, 0, 0, 1, 0, 0, 0, 0, 0]"] ;
188 -> 189 ;
190 [label="gini = 0.0\nsamples = 2\nvalue = [0, 0, 0, 0, 0, 0, 2, 0, 0, 0]"] ;
188 -> 190 ;
191 [label="X[41] <= 8.0\ngini = 0.071\nsamples = 82\nvalue = [0, 79, 0, 0, 1, 0, 0, 0, 2, 0]"] ;
187 -> 191 ;
192 [label="X[46] <= 3.5\ngini = 0.048\nsamples = 81\nvalue = [0, 79, 0, 0, 0, 0, 0, 0, 2, 0]"] ;
191 -> 192 ;
193 [label="X[36] <= 3.5\ngini = 0.025\nsamples = 80\nvalue = [0, 79, 0, 0, 0, 0, 0, 0, 1, 0]"] ;
192 -> 193 ;
194 [label="X[34] <= 10.5\ngini = 0.5\nsamples = 2\nvalue = [0, 1, 0, 0, 0, 0, 0, 0, 1, 0]"] ;
193 -> 194 ;
195 [label="gini = 0.0\nsamples = 1\nvalue = [0, 0, 0, 0, 0, 0, 0, 0, 1, 0]"] ;
194 -> 195 ;
196 [label="gini = 0.0\nsamples = 1\nvalue = [0, 1, 0, 0, 0, 0, 0, 0, 0, 0]"] ;
194 -> 196 ;
197 [label="gini = 0.0\nsamples = 78\nvalue = [0, 78, 0, 0, 0, 0, 0, 0, 0, 0]"] ;
193 -> 197 ;
198 [label="gini = 0.0\nsamples = 1\nvalue = [0, 0, 0, 0, 0, 0, 0, 0, 1, 0]"] ;
192 -> 198 ;
199 [label="gini = 0.0\nsamples = 1\nvalue = [0, 0, 0, 0, 1, 0, 0, 0, 0, 0]"] ;
191 -> 199 ;
200 [label="X[53] <= 5.5\ngini = 0.49\nsamples = 7\nvalue = [0, 0, 4, 0, 0, 3, 0, 0, 0, 0]"] ;
182 -> 200 ;
201 [label="gini = 0.0\nsamples = 3\nvalue = [0, 0, 0, 0, 0, 3, 0, 0, 0, 0]"] ;
200 -> 201 ;
202 [label="gini = 0.0\nsamples = 4\nvalue = [0, 0, 4, 0, 0, 0, 0, 0, 0, 0]"] ;
200 -> 202 ;
203 [label="X[26] <= 10.5\ngini = 0.557\nsamples = 199\nvalue = [2, 3, 0, 1, 89, 3, 0, 98, 1, 2]"] ;
111 -> 203 ;
204 [label="X[61] <= 3.0\ngini = 0.097\nsamples = 100\nvalue = [0, 0, 0, 1, 2, 0, 0, 95, 1, 1]"] ;
203 -> 204 ;
205 [label="gini = 0.0\nsamples = 95\nvalue = [0, 0, 0, 0, 0, 0, 0, 95, 0, 0]"] ;
204 -> 205 ;
206 [label="X[38] <= 4.5\ngini = 0.72\nsamples = 5\nvalue = [0, 0, 0, 1, 2, 0, 0, 0, 1, 1]"] ;
204 -> 206 ;
207 [label="X[60] <= 14.5\ngini = 0.667\nsamples = 3\nvalue = [0, 0, 0, 1, 0, 0, 0, 0, 1, 1]"] ;
206 -> 207 ;
208 [label="gini = 0.0\nsamples = 1\nvalue = [0, 0, 0, 1, 0, 0, 0, 0, 0, 0]"] ;
207 -> 208 ;
209 [label="X[19] <= 4.5\ngini = 0.5\nsamples = 2\nvalue = [0, 0, 0, 0, 0, 0, 0, 0, 1, 1]"] ;
207 -> 209 ;
210 [label="gini = 0.0\nsamples = 1\nvalue = [0, 0, 0, 0, 0, 0, 0, 0, 0, 1]"] ;
209 -> 210 ;
211 [label="gini = 0.0\nsamples = 1\nvalue = [0, 0, 0, 0, 0, 0, 0, 0, 1, 0]"] ;
209 -> 211 ;
212 [label="gini = 0.0\nsamples = 2\nvalue = [0, 0, 0, 0, 2, 0, 0, 0, 0, 0]"] ;
206 -> 212 ;
213 [label="X[5] <= 9.5\ngini = 0.224\nsamples = 99\nvalue = [2, 3, 0, 0, 87, 3, 0, 3, 0, 1]"] ;
203 -> 213 ;
214 [label="X[36] <= 4.5\ngini = 0.066\nsamples = 88\nvalue = [2, 0, 0, 0, 85, 0, 0, 1, 0, 0]"] ;
213 -> 214 ;
215 [label="X[22] <= 1.5\ngini = 0.444\nsamples = 3\nvalue = [2, 0, 0, 0, 1, 0, 0, 0, 0, 0]"] ;
214 -> 215 ;
216 [label="gini = 0.0\nsamples = 1\nvalue = [0, 0, 0, 0, 1, 0, 0, 0, 0, 0]"] ;
215 -> 216 ;
217 [label="gini = 0.0\nsamples = 2\nvalue = [2, 0, 0, 0, 0, 0, 0, 0, 0, 0]"] ;
215 -> 217 ;
218 [label="X[58] <= 8.5\ngini = 0.023\nsamples = 85\nvalue = [0, 0, 0, 0, 84, 0, 0, 1, 0, 0]"] ;
214 -> 218 ;
219 [label="gini = 0.0\nsamples = 84\nvalue = [0, 0, 0, 0, 84, 0, 0, 0, 0, 0]"] ;
218 -> 219 ;
220 [label="gini = 0.0\nsamples = 1\nvalue = [0, 0, 0, 0, 0, 0, 0, 1, 0, 0]"] ;
218 -> 220 ;
221 [label="X[20] <= 1.5\ngini = 0.777\nsamples = 11\nvalue = [0, 3, 0, 0, 2, 3, 0, 2, 0, 1]"] ;
213 -> 221 ;
222 [label="gini = 0.0\nsamples = 3\nvalue = [0, 0, 0, 0, 0, 3, 0, 0, 0, 0]"] ;
221 -> 222 ;
223 [label="X[20] <= 14.5\ngini = 0.719\nsamples = 8\nvalue = [0, 3, 0, 0, 2, 0, 0, 2, 0, 1]"] ;
221 -> 223 ;
224 [label="X[29] <= 14.0\ngini = 0.64\nsamples = 5\nvalue = [0, 0, 0, 0, 2, 0, 0, 2, 0, 1]"] ;
223 -> 224 ;
225 [label="gini = 0.0\nsamples = 2\nvalue = [0, 0, 0, 0, 2, 0, 0, 0, 0, 0]"] ;
224 -> 225 ;
226 [label="X[7] <= 0.5\ngini = 0.444\nsamples = 3\nvalue = [0, 0, 0, 0, 0, 0, 0, 2, 0, 1]"] ;
224 -> 226 ;
227 [label="gini = 0.0\nsamples = 2\nvalue = [0, 0, 0, 0, 0, 0, 0, 2, 0, 0]"] ;
226 -> 227 ;
228 [label="gini = 0.0\nsamples = 1\nvalue = [0, 0, 0, 0, 0, 0, 0, 0, 0, 1]"] ;
226 -> 228 ;
229 [label="gini = 0.0\nsamples = 3\nvalue = [0, 3, 0, 0, 0, 0, 0, 0, 0, 0]"] ;
223 -> 229 ;
230 [label="X[21] <= 1.0\ngini = 0.46\nsamples = 145\nvalue = [0, 1, 6, 7, 8, 1, 105, 0, 12, 5]"] ;
110 -> 230 ;
231 [label="X[61] <= 6.0\ngini = 0.136\nsamples = 112\nvalue = [0, 0, 1, 1, 4, 1, 104, 0, 1, 0]"] ;
230 -> 231 ;
232 [label="X[44] <= 10.0\ngini = 0.5\nsamples = 6\nvalue = [0, 0, 0, 1, 4, 1, 0, 0, 0, 0]"] ;
231 -> 232 ;
233 [label="X[53] <= 13.0\ngini = 0.5\nsamples = 2\nvalue = [0, 0, 0, 1, 0, 1, 0, 0, 0, 0]"] ;
232 -> 233 ;
234 [label="gini = 0.0\nsamples = 1\nvalue = [0, 0, 0, 1, 0, 0, 0, 0, 0, 0]"] ;
233 -> 234 ;
235 [label="gini = 0.0\nsamples = 1\nvalue = [0, 0, 0, 0, 0, 1, 0, 0, 0, 0]"] ;
233 -> 235 ;
236 [label="gini = 0.0\nsamples = 4\nvalue = [0, 0, 0, 0, 4, 0, 0, 0, 0, 0]"] ;
232 -> 236 ;
237 [label="X[9] <= 2.5\ngini = 0.037\nsamples = 106\nvalue = [0, 0, 1, 0, 0, 0, 104, 0, 1, 0]"] ;
231 -> 237 ;
238 [label="gini = 0.0\nsamples = 104\nvalue = [0, 0, 0, 0, 0, 0, 104, 0, 0, 0]"] ;
237 -> 238 ;
239 [label="X[17] <= 8.0\ngini = 0.5\nsamples = 2\nvalue = [0, 0, 1, 0, 0, 0, 0, 0, 1, 0]"] ;
237 -> 239 ;
240 [label="gini = 0.0\nsamples = 1\nvalue = [0, 0, 1, 0, 0, 0, 0, 0, 0, 0]"] ;
239 -> 240 ;
241 [label="gini = 0.0\nsamples = 1\nvalue = [0, 0, 0, 0, 0, 0, 0, 0, 1, 0]"] ;
239 -> 241 ;
242 [label="X[26] <= 3.5\ngini = 0.793\nsamples = 33\nvalue = [0, 1, 5, 6, 4, 0, 1, 0, 11, 5]"] ;
230 -> 242 ;
243 [label="X[43] <= 8.5\ngini = 0.5\nsamples = 10\nvalue = [0, 0, 5, 5, 0, 0, 0, 0, 0, 0]"] ;
242 -> 243 ;
244 [label="gini = 0.0\nsamples = 5\nvalue = [0, 0, 0, 5, 0, 0, 0, 0, 0, 0]"] ;
243 -> 244 ;
245 [label="gini = 0.0\nsamples = 5\nvalue = [0, 0, 5, 0, 0, 0, 0, 0, 0, 0]"] ;
243 -> 245 ;
246 [label="X[46] <= 8.5\ngini = 0.688\nsamples = 23\nvalue = [0, 1, 0, 1, 4, 0, 1, 0, 11, 5]"] ;
242 -> 246 ;
247 [label="X[10] <= 12.5\ngini = 0.54\nsamples = 17\nvalue = [0, 1, 0, 1, 3, 0, 1, 0, 11, 0]"] ;
246 -> 247 ;
248 [label="X[45] <= 14.5\ngini = 0.667\nsamples = 6\nvalue = [0, 1, 0, 1, 3, 0, 1, 0, 0, 0]"] ;
247 -> 248 ;
249 [label="gini = 0.0\nsamples = 3\nvalue = [0, 0, 0, 0, 3, 0, 0, 0, 0, 0]"] ;
248 -> 249 ;
250 [label="X[21] <= 9.5\ngini = 0.667\nsamples = 3\nvalue = [0, 1, 0, 1, 0, 0, 1, 0, 0, 0]"] ;
248 -> 250 ;
251 [label="gini = 0.0\nsamples = 1\nvalue = [0, 0, 0, 0, 0, 0, 1, 0, 0, 0]"] ;
250 -> 251 ;
252 [label="X[44] <= 10.0\ngini = 0.5\nsamples = 2\nvalue = [0, 1, 0, 1, 0, 0, 0, 0, 0, 0]"] ;
250 -> 252 ;
253 [label="gini = 0.0\nsamples = 1\nvalue = [0, 0, 0, 1, 0, 0, 0, 0, 0, 0]"] ;
252 -> 253 ;
254 [label="gini = 0.0\nsamples = 1\nvalue = [0, 1, 0, 0, 0, 0, 0, 0, 0, 0]"] ;
252 -> 254 ;
255 [label="gini = 0.0\nsamples = 11\nvalue = [0, 0, 0, 0, 0, 0, 0, 0, 11, 0]"] ;
247 -> 255 ;
256 [label="X[44] <= 11.5\ngini = 0.278\nsamples = 6\nvalue = [0, 0, 0, 0, 1, 0, 0, 0, 0, 5]"] ;
246 -> 256 ;
257 [label="gini = 0.0\nsamples = 5\nvalue = [0, 0, 0, 0, 0, 0, 0, 0, 0, 5]"] ;
256 -> 257 ;
258 [label="gini = 0.0\nsamples = 1\nvalue = [0, 0, 0, 0, 1, 0, 0, 0, 0, 0]"] ;
256 -> 258 ;
}
